2.5,0.9,-0.2,
2.49939,0.910705,-0.212403,
2.50468,0.754015,0.113941,
2.56198,0.731802,0.350553,
2.48392,0.733499,0.0022876,
2.48209,0.761042,-0.0279135,
2.48737,0.666915,0.221558,
2.54119,0.649068,0.432755,
2.4579,0.650431,0.0935708,
2.45498,0.691411,0.0497678,
2.46031,0.62052,0.264205,
2.51232,0.604295,0.46785,
2.42428,0.605492,0.12952,
2.42074,0.653462,0.0790219,
2.42639,0.592799,0.27928,
2.47749,0.577189,0.482771,
2.38486,0.578284,0.141513,
2.38097,0.629346,0.0883508,
2.38716,0.574469,0.282165,
2.43772,0.559065,0.488614,
2.34086,0.560087,0.142971,
2.33673,0.612509,0.0888802,
2.34365,0.561666,0.278934,
2.39384,0.54628,0.489725,
2.29346,0.547243,0.139309,
2.28909,0.600412,0.0848718,
2.29693,0.552803,0.271872,
2.34683,0.537331,0.48767,
2.24404,0.538245,0.132617,
2.23938,0.592034,0.0779237,
2.24833,0.547224,0.261794,
2.29803,0.531601,0.482944,
2.19424,0.532472,0.123696,
2.18922,0.586941,0.0686531,
2.19949,0.54464,0.249042,
2.24907,0.528817,0.475711,
2.1458,0.529651,0.112904,
2.14036,0.584901,0.0573806,
2.15213,0.544878,0.233903,
2.20171,0.528816,0.466129,
2.10033,0.529616,0.100496,
2.09441,0.585724,0.0443939,
2.10783,0.547768,0.216749,
2.15757,0.531437,0.45446,
2.0591,0.532206,0.0867446,
2.05265,0.589193,0.0300219,
2.06785,0.553102,0.198035,
2.1179,0.536481,0.441069,
2.02293,0.537222,0.0719489,
2.01592,0.595046,0.0146257,
2.03294,0.56063,0.178248,
2.0835,0.543704,0.426369,
1.9922,0.54442,0.0564182,
1.98462,0.602994,-0.00143688,
2.00349,0.570076,0.15784,
2.05473,0.552836,0.410763,
1.96699,0.553529,0.04044,
1.95886,0.612733,-0.0178473,
1.97954,0.581153,0.137194,
2.03163,0.563599,0.394598,
1.94715,0.56427,0.0242562,
1.93848,0.62397,-0.0343486,
1.9609,0.593588,0.116598,
2.01402,0.575722,0.378146,
1.9324,0.576374,0.00804993,
1.92323,0.636432,-0.0507547,
1.94729,0.607128,0.096252,
2.00161,0.588958,0.361604,
1.92242,0.589592,-0.00805525,
1.9128,0.649875,-0.0669468,
1.93838,0.621548,0.076274,
1.99405,0.603083,0.345093,
1.91686,0.603701,-0.0239895,
1.90684,0.664088,-0.0828645,
1.93381,0.63665,0.0567189,
1.99101,0.617904,0.328681,
1.91541,0.618506,-0.0397274,
1.90503,0.678887,-0.0984932,
1.93327,0.652265,0.0375934,
1.99214,0.633254,0.312386,
1.91776,0.63384,-0.0552778,
1.90709,0.694118,-0.113854,
1.93645,0.66825,0.0188695,
1.99717,0.64899,0.296197,
1.92365,0.649562,-0.0706742,
1.91273,0.709651,-0.12899,
1.9431,0.684484,0.000495289,
2.00584,0.664993,0.280077,
1.93286,0.665552,-0.0859688,
1.92174,0.72538,-0.143967,
1.953,0.700866,-0.0175971,
2.01793,0.681164,0.263968,
1.9452,0.68171,-0.101227,
1.93394,0.741216,-0.158858,
1.96596,0.717315,-0.0354867,
2.03328,0.697421,0.247803,
1.96053,0.697955,-0.116523,
1.94916,0.757087,-0.173747,
1.98185,0.733761,-0.0532601,
2.05177,0.713697,0.231501,
1.97871,0.71422,-0.131942,
1.96729,0.772935,-0.188726,
2.00057,0.750152,-0.0710103,
2.07329,0.72994,0.214973,
1.99969,0.730451,-0.147574,
1.98826,0.788716,-0.203893,
2.02204,0.766445,-0.0888363,
2.09779,0.746107,0.198118,
2.0234,0.746607,-0.163519,
2.012,0.804393,-0.219353,
2.04621,0.782605,-0.106844,
2.12525,0.762166,0.180825,
2.04982,0.762656,-0.179886,
2.03849,0.819941,-0.235221,
2.07308,0.798609,-0.125145,
2.15567,0.778093,0.162972,
2.07896,0.778572,-0.196795,
2.06773,0.835339,-0.251619,
2.10266,0.814437,-0.143862,
2.18907,0.79387,0.144421,
2.11083,0.794338,-0.214378,
2.09974,0.850574,-0.268683,
2.13498,0.830075,-0.163128,
2.22552,0.809484,0.125019,
2.14548,0.809943,-0.232783,
2.13456,0.865635,-0.286563,
2.17009,0.845514,-0.183088,
2.26507,0.824929,0.104594,
2.18296,0.825378,-0.252175,
2.17224,0.880515,-0.305424,
2.20805,0.860746,-0.203904,
2.30779,0.840199,0.0829494,
2.22333,0.840638,-0.272738,
2.21284,0.89521,-0.325449,
2.24893,0.875767,-0.225751,
2.35375,0.85529,0.0598682,
2.26664,0.85572,-0.294677,
2.25641,0.909716,-0.346844,
2.29281,0.89057,-0.248826,
2.40301,0.870201,0.0351057,
2.31295,0.870622,-0.31822,
2.30301,0.924027,-0.369832,
2.33974,0.905149,-0.273343,
2.45559,0.884928,0.0083923,
2.36228,0.885341,-0.343613,
2.35264,0.938138,-0.394657,
2.38977,0.919497,-0.299532,
2.51147,0.899468,-0.020565,
2.41461,0.899872,-0.37112,
2.40531,0.952041,-0.421579,
2.4429,0.933603,-0.327638,
2.57057,0.913815,-0.0520758,
2.46988,0.914209,-0.401012,
2.46092,0.965726,-0.450865,
2.49908,0.947454,-0.35791,
2.6327,0.927958,-0.0864539,
2.52795,0.928344,-0.433553,
2.51935,0.97918,-0.482775,
2.55819,0.961036,-0.39059,
2.69757,0.941887,-0.123999,
2.5886,0.942264,-0.468981,
2.58037,0.99239,-0.517544,
2.62004,0.97433,-0.425898,
2.76479,0.955588,-0.16497,
2.65153,0.955956,-0.507476,
2.64368,1.00534,-0.555355,
2.68435,0.987323,-0.464,
2.83384,0.969045,-0.209552,
2.71636,0.969404,-0.549132,
2.70889,1.01803,-0.596304,
2.75073,1.00001,-0.504991,
2.90411,0.982248,-0.25782,
2.78263,0.982598,-0.593921,
2.77554,1.03045,-0.640376,
2.81876,1.01238,-0.548858,
2.97497,0.995193,-0.309707,
2.84988,0.995533,-0.641674,
2.84314,1.04261,-0.687413,
2.88795,1.02446,-0.595471,
3.04577,1.00789,-0.364987,
2.91763,1.00822,-0.692069,
2.91124,1.05454,-0.737114,
2.95781,1.03628,-0.644566,
3.11594,1.02036,-0.423273,
2.98544,1.02068,-0.744647,
2.97938,1.0663,-0.789039,
3.02787,1.04791,-0.695768,
3.18502,1.03266,-0.484045,
3.05296,1.03297,-0.798854,
3.04719,1.07794,-0.842651,
3.09771,1.05941,-0.748614,
3.25266,1.04485,-0.546684,
3.11987,1.04514,-0.854087,
3.11439,1.08953,-0.897358,
3.16697,1.07089,-0.802596,
3.31865,1.05701,-0.610532,
3.18596,1.05729,-0.909751,
3.18072,1.10117,-0.952571,
3.23533,1.08244,-0.857207,
3.38286,1.06923,-0.674937,
3.25103,1.0695,-0.965303,
3.24603,1.11294,-1.00774,
3.30255,1.09416,-0.911974,
3.44524,1.0816,-0.739295,
3.31495,1.08186,-1.02028,
3.31016,1.12491,-1.0624,
3.36842,1.10612,-0.966481,
3.5058,1.09418,-0.803083,
3.37761,1.09443,-1.07433,
3.37302,1.13713,-1.11616,
3.43277,1.11839,-1.02038,
3.56457,1.10705,-0.865869,
3.43893,1.10728,-1.12716,
3.43452,1.14965,-1.16874,
3.49549,1.13102,-1.07341,
3.62159,1.12022,-0.927316,
3.49882,1.12044,-1.1786,
3.49459,1.16248,-1.21994,
3.55647,1.144,-1.12535,
3.67691,1.13372,-0.987178,
3.55725,1.13393,-1.22853,
3.55319,1.17562,-1.26961,
3.61567,1.15734,-1.17606,
3.73056,1.14753,-1.04529,
3.61416,1.14774,-1.27688,
3.61026,1.18904,-1.31768,
3.67304,1.17102,-1.22543,
3.78259,1.16164,-1.10154,
3.66953,1.16183,-1.32363,
3.66578,1.20273,-1.36413,
3.72857,1.18498,-1.27339,
3.83304,1.17601,-1.15588,
3.72333,1.17619,-1.36878,
3.71974,1.21662,-1.40895,
3.78229,1.19919,-1.31991,
3.88193,1.19058,-1.2083,
3.77557,1.19075,-1.41238,
3.77213,1.23068,-1.45216,
3.83421,1.21358,-1.36497,
3.9293,1.20531,-1.25882,
3.82625,1.20547,-1.45444,
3.82295,1.24485,-1.49381,
3.88436,1.2281,-1.40858,
3.9752,1.22014,-1.30747,
3.87539,1.2203,-1.49503,
3.87222,1.25909,-1.53395,
3.93281,1.2427,-1.45076,
4.01965,1.23502,-1.35431,
3.923,1.23517,-1.5342,
3.91996,1.27334,-1.57263,
3.97959,1.25733,-1.49153,
4.06269,1.2499,-1.39939,
3.96911,1.25005,-1.572,
3.9662,1.28757,-1.60991,
4.02476,1.27192,-1.53092,
4.10437,1.26474,-1.44278,
4.01376,1.26488,-1.60849,
4.01097,1.30172,-1.64586,
4.06839,1.28645,-1.56899,
4.14473,1.27949,-1.48455,
4.05698,1.27962,-1.64372,
4.05432,1.31577,-1.68054,
4.11054,1.30087,-1.60576,
4.18382,1.29411,-1.52477,
4.09883,1.29424,-1.67775,
4.09627,1.32969,-1.71399,
4.15126,1.31515,-1.64129,
4.22168,1.30858,-1.56351,
4.13933,1.3087,-1.71064,
4.13689,1.34344,-1.7463,
4.19062,1.32925,-1.67563,
4.25834,1.32287,-1.60084,
4.17855,1.32299,-1.74243,
4.17621,1.35701,-1.7775,
4.22867,1.34317,-1.70881,
4.29387,1.33695,-1.63683,
4.21653,1.33707,-1.77318,
4.21428,1.37037,-1.80766,
4.26548,1.35688,-1.7409,
4.32831,1.35082,-1.67154,
4.2533,1.35092,-1.80294,
4.25115,1.38352,-1.83682,
4.30109,1.37036,-1.77194,
4.36169,1.36445,-1.70503,
4.28893,1.36455,-1.83175,
4.28687,1.39645,-1.86503,
4.33557,1.3836,-1.80197,
4.39407,1.37783,-1.73738,
4.32346,1.37793,-1.85966,
4.32148,1.40913,-1.89235,
4.36897,1.3966,-1.83104,
4.42548,1.39096,-1.76862,
4.35693,1.39106,-1.88671,
4.35503,1.42158,-1.91882,
4.40133,1.40934,-1.8592,
4.45596,1.40383,-1.79883,
4.38939,1.40392,-1.91294,
4.38756,1.43378,-1.94447,
4.4327,1.42183,-1.88648,
4.48556,1.41644,-1.82804,
4.42088,1.41653,-1.93838,
4.41912,1.44574,-1.96934,
4.46313,1.43407,-1.91293,
4.51431,1.42879,-1.85631,
4.45144,1.42888,-1.96308,
4.44975,1.45744,-1.99348,
4.49265,1.44605,-1.93857,
4.54225,1.44088,-1.88369,
4.48111,1.44096,-1.98706,
4.47949,1.46891,-2.01692,
4.52132,1.45777,-1.96346,
4.56941,1.4527,-1.91022,
4.50993,1.45278,-2.01037,
4.50837,1.48012,-2.03969,
4.54917,1.46924,-1.98762,
4.59583,1.46427,-1.93594,
4.53793,1.46435,-2.03302,
4.53643,1.4911,-2.06182,
4.57624,1.48045,-2.01109,
4.62154,1.47558,-1.96088,
4.56516,1.47566,-2.05506,
4.56371,1.50183,-2.08334,
4.60255,1.49142,-2.0339,
4.64656,1.48665,-1.98509,
4.59164,1.48672,-2.0765,
4.59024,1.51234,-2.10428,
4.62815,1.50215,-2.05608,
4.67092,1.49746,-2.0086,
4.6174,1.49753,-2.09738,
4.61606,1.52261,-2.12467,
4.65307,1.51264,-2.07765,
4.69466,1.50804,-2.03145,
4.64249,1.50811,-2.11771,
4.64119,1.53266,-2.14452,
4.67733,1.5229,-2.09865,
4.7178,1.51838,-2.05366,
4.66691,1.51845,-2.13752,
4.66566,1.54249,-2.16387,
4.70096,1.53293,-2.1191,
4.74037,1.52849,-2.07526,
4.69071,1.52855,-2.15684,
4.6895,1.5521,-2.18273,
4.72399,1.54274,-2.13901,
4.76237,1.53837,-2.09628,
4.71391,1.53844,-2.17568,
4.71274,1.56151,-2.20113,
4.74644,1.55234,-2.15842,
4.78385,1.54804,-2.11675,
4.73652,1.5481,-2.19406,
4.73539,1.57071,-2.21908,
4.76835,1.56172,-2.17735,
4.80482,1.55749,-2.13668,
4.75859,1.55755,-2.21201,
4.75749,1.57971,-2.2366,
4.78972,1.5709,-2.19581,
4.8253,1.56674,-2.15611,
4.78012,1.5668,-2.22953,
4.77906,1.58852,-2.25372,
4.81058,1.57988,-2.21383,
4.8453,1.57578,-2.17506,
4.80114,1.57584,-2.24665,
4.80011,1.59714,-2.27044,
4.83096,1.58866,-2.23142,
4.86485,1.58463,-2.19354,
4.82167,1.58469,-2.26338,
4.82067,1.60558,-2.28678,
4.85086,1.59726,-2.2486,
4.88397,1.59329,-2.21157,
4.84172,1.59335,-2.27974,
4.84076,1.61384,-2.30277,
4.87031,1.60567,-2.26539,
4.90267,1.60177,-2.22918,
4.86132,1.60182,-2.29574,
4.86039,1.62193,-2.3184,
4.88933,1.61391,-2.2818,
4.92096,1.61006,-2.24637,
4.88049,1.61012,-2.31139,
4.87958,1.62985,-2.33369,
4.90794,1.62198,-2.29785,
4.93886,1.61819,-2.26318,
4.89923,1.61824,-2.32671,
4.89835,1.6376,-2.34867,
4.92614,1.62987,-2.31355,
4.95639,1.62614,-2.2796,
4.91757,1.62619,-2.34171,
4.91671,1.64521,-2.36333,
4.94395,1.63761,-2.32891,
4.97356,1.63393,-2.29566,
4.93552,1.63398,-2.3564,
4.93469,1.65265,-2.37769,
4.96139,1.64519,-2.34394,
4.99037,1.64156,-2.31137,
4.95309,1.6416,-2.3708,
4.95228,1.65995,-2.39176,
4.97847,1.65261,-2.35867,
5.00685,1.64903,-2.32675,
4.9703,1.64908,-2.3849,
4.96951,1.6671,-2.40556,
4.9952,1.65989,-2.37309,
5.023,1.65636,-2.3418,
4.98716,1.65641,-2.39873,
4.98639,1.67412,-2.41908,
5.0116,1.66702,-2.38722,
5.03884,1.66354,-2.35653,
5.00368,1.66359,-2.41229,
5.00294,1.681,-2.43234,
5.02767,1.67402,-2.40108,
5.05438,1.67058,-2.37097,
5.01988,1.67062,-2.4256,
5.01915,1.68774,-2.44536,
5.04344,1.68088,-2.41466,
5.06962,1.67748,-2.38512,
5.03576,1.67753,-2.43865,
5.03505,1.69436,-2.45813,
5.0589,1.6876,-2.42798,
5.08458,1.68426,-2.39898,
5.05134,1.6843,-2.45146,
5.05064,1.70085,-2.47066,
5.07406,1.6942,-2.44105,
5.09926,1.6909,-2.41258,
5.06662,1.69094,-2.46404,
5.06594,1.70722,-2.48297,
5.08895,1.70068,-2.45388,
5.11368,1.69741,-2.42592,
5.08161,1.69746,-2.47639,
5.08095,1.71348,-2.49506,
5.10356,1.70703,-2.46647,
5.12783,1.70381,-2.439,
5.09633,1.70385,-2.48852,
5.09569,1.71962,-2.50694,
5.11791,1.71327,-2.47883,
5.14174,1.71009,-2.45184,
5.11078,1.71013,-2.50044,
5.11016,1.72565,-2.51861,
5.132,1.71939,-2.49097,
5.15541,1.71625,-2.46444,
5.12498,1.71629,-2.51215,
5.12437,1.73157,-2.53008,
5.14584,1.72541,-2.5029,
5.16884,1.7223,-2.47682,
5.13892,1.72234,-2.52367,
5.13832,1.73739,-2.54135,
5.15945,1.73131,-2.51462,
5.18204,1.72825,-2.48897,
5.15262,1.72828,-2.53499,
5.15204,1.7431,-2.55244,
5.17282,1.73712,-2.52614,
5.19503,1.73409,-2.50092,
5.16609,1.73412,-2.54612,
5.16552,1.74872,-2.56335,
5.18596,1.74282,-2.53747,
5.20779,1.73982,-2.51265,
5.17933,1.73986,-2.55707,
5.17877,1.75424,-2.57408,
5.19888,1.74842,-2.54861,
5.22035,1.74546,-2.52418,
5.19234,1.74549,-2.56785,
5.19179,1.75966,-2.58464,
5.2116,1.75393,-2.55956,
5.23271,1.751,-2.53552,
5.20514,1.75103,-2.57845,
5.20461,1.765,-2.59503,
5.2241,1.75934,-2.57034,
5.24487,1.75645,-2.54667,
5.21773,1.75648,-2.58889,
5.21721,1.77024,-2.60526,
5.2364,1.76467,-2.58094,
5.25684,1.7618,-2.55764,
5.23012,1.76184,-2.59916,
5.22961,1.77541,-2.61534,
5.24851,1.7699,-2.59138,
5.26863,1.76707,-2.56843,
5.24231,1.7671,-2.60928,
5.24181,1.78048,-2.62526,
5.26043,1.77505,-2.60165,
5.28023,1.77225,-2.57905,
5.25431,1.77228,-2.61925,
5.25382,1.78548,-2.63503,
5.27217,1.78012,-2.61177,
5.29166,1.77735,-2.5895,
5.26613,1.77738,-2.62906,
5.26565,1.79039,-2.64466,
5.28372,1.7851,-2.62173,
5.30292,1.78236,-2.59979,
5.27776,1.78239,-2.63873,
5.27729,1.79523,-2.65414,
5.2951,1.79,-2.63155,
5.31401,1.78729,-2.60992,
5.28921,1.78732,-2.64826,
5.28875,1.79999,-2.66349,
5.30631,1.79483,-2.64121,
5.32494,1.79215,-2.61989,
5.3005,1.79218,-2.65765,
5.30005,1.80468,-2.67271,
5.31736,1.79959,-2.65074,
5.33571,1.79693,-2.62972,
5.31162,1.79696,-2.66691,
5.31117,1.80929,-2.6818,
5.32824,1.80426,-2.66013,
5.34632,1.80164,-2.6394,
5.32257,1.80167,-2.67604,
5.32214,1.81384,-2.69075,
5.33897,1.80887,-2.66938,
5.35679,1.80627,-2.64894,
5.33337,1.8063,-2.68504,
5.33294,1.81831,-2.69959,
5.34954,1.81341,-2.6785,
5.36711,1.81084,-2.65834,
5.34401,1.81086,-2.69392,
5.34359,1.82273,-2.70831,
5.35997,1.81788,-2.6875,
5.37729,1.81533,-2.6676,
5.3545,1.81536,-2.70267,
5.35409,1.82707,-2.7169,
5.37025,1.82228,-2.69637,
5.38733,1.81976,-2.67674,
5.36485,1.81979,-2.71131,
5.36444,1.83135,-2.72539,
5.38038,1.82662,-2.70512,
5.39723,1.82412,-2.68574,
5.37505,1.82415,-2.71984,
5.37465,1.83558,-2.73376,
5.39038,1.8309,-2.71375,
5.40701,1.82843,-2.69463,
5.38511,1.82845,-2.72825,
5.38472,1.83974,-2.74202,
5.40025,1.83512,-2.72227,
5.41665,1.83266,-2.70339,
5.39504,1.83269,-2.73655,
5.39466,1.84384,-2.75018,
5.40998,1.83927,-2.73067,
5.42616,1.83684,-2.71203,
5.40483,1.83687,-2.74475,
5.40446,1.84788,-2.75823,
5.41959,1.84337,-2.73897,
5.43556,1.84096,-2.72056,
5.4145,1.84099,-2.75284,
5.41413,1.85187,-2.76618,
5.42907,1.84741,-2.74716,
5.44483,1.84502,-2.72898,
5.42403,1.84505,-2.76083,
5.42367,1.8558,-2.77403,
5.43843,1.85139,-2.75524,
5.45398,1.84903,-2.73729,
5.43345,1.84905,-2.76872,
5.43309,1.85968,-2.78179,
5.44767,1.85532,-2.76322,
5.46302,1.85298,-2.74549,
5.44274,1.853,-2.77651,
5.44239,1.86351,-2.78945,
5.45679,1.85919,-2.77111,
5.47195,1.85687,-2.75358,
5.45192,1.8569,-2.78421,
5.45158,1.86728,-2.79702,
5.4658,1.86301,-2.77889,
5.48077,1.86072,-2.76158,
5.46098,1.86074,-2.79182,
5.46064,1.87101,-2.80449,
5.47469,1.86679,-2.78658,
5.48948,1.86451,-2.76947,
5.46993,1.86453,-2.79933,
5.46959,1.87469,-2.81188,
5.48348,1.87051,-2.79418,
5.49809,1.86825,-2.77726,
5.47876,1.86827,-2.80676,
5.47844,1.87832,-2.81918,
5.49216,1.87418,-2.80168,
5.50659,1.87194,-2.78497,
5.48749,1.87197,-2.81409,
5.48717,1.8819,-2.8264,
5.50073,1.87781,-2.8091,
5.51499,1.87559,-2.79257,
5.49612,1.87561,-2.82135,
5.4958,1.88544,-2.83354,
5.50921,1.88139,-2.81643,
5.5233,1.87919,-2.80009,
5.50464,1.87921,-2.82852,
5.50433,1.88893,-2.84059,
5.51758,1.88492,-2.82367,
5.53151,1.88274,-2.80752,
5.51306,1.88276,-2.8356,
5.51276,1.89237,-2.84756,
5.52586,1.88841,-2.83083,
5.53962,1.88625,-2.81486,
5.52138,1.88627,-2.84261,
5.52108,1.89578,-2.85446,
5.53404,1.89185,-2.83791,
5.54764,1.88971,-2.82211,
5.52961,1.88973,-2.84954,
5.52931,1.89914,-2.86128,
5.54212,1.89526,-2.84491,
5.55557,1.89313,-2.82928,
5.53774,1.89315,-2.8564,
5.53745,1.90246,-2.86803,
5.55012,1.89862,-2.85183,
5.56341,1.89651,-2.83637,
5.54578,1.89653,-2.86318,
5.54549,1.90575,-2.8747,
5.55802,1.90194,-2.85868,
5.57117,1.89985,-2.84338,
5.55373,1.89987,-2.86988,
5.55344,1.90899,-2.8813,
5.56584,1.90521,-2.86545,
5.57884,1.90314,-2.85031,
5.56159,1.90316,-2.87652,
5.56131,1.91219,-2.88783,
5.57357,1.90846,-2.87214,
5.58643,1.9064,-2.85717,
5.56936,1.90642,-2.88308,
5.56908,1.91536,-2.89429,
5.58121,1.91166,-2.87877,
5.59393,1.90962,-2.86395,
5.57704,1.90964,-2.88957,
5.57677,1.91849,-2.90069,
5.58878,1.91482,-2.88532,
5.60136,1.9128,-2.87065,
5.58465,1.91282,-2.896,
5.58438,1.92158,-2.90701,
5.59626,1.91795,-2.8918,
5.6087,1.91594,-2.87729,
5.59217,1.91596,-2.90236,
5.59191,1.92464,-2.91328,
5.60366,1.92104,-2.89822,
5.61597,1.91905,-2.88385,
5.59961,1.91907,-2.90865,
5.59935,1.92766,-2.91948,
5.61098,1.92409,-2.90457,
5.62317,1.92212,-2.89034,
5.60697,1.92214,-2.91488,
5.60671,1.93064,-2.92561,
5.61823,1.92711,-2.91085,
5.63029,1.92515,-2.89677,
5.61425,1.92517,-2.92105,
5.614,1.9336,-2.93169,
5.6254,1.9301,-2.91707,
5.63733,1.92815,-2.90313,
5.62146,1.92817,-2.92715,
5.62121,1.93652,-2.9377,
5.6325,1.93305,-2.92323,
5.64431,1.93112,-2.90942,
5.6286,1.93114,-2.9332,
5.62835,1.93941,-2.94366,
5.63953,1.93597,-2.92933,
5.65122,1.93406,-2.91565,
5.63566,1.93407,-2.93918,
5.63542,1.94227,-2.94956,
5.64648,1.93886,-2.93536,
5.65805,1.93696,-2.92182,
5.64265,1.93698,-2.94511,
5.64241,1.94509,-2.9554,
5.65336,1.94172,-2.94134,
5.66482,1.93983,-2.92792,
5.64957,1.93985,-2.95098,
5.64933,1.94789,-2.96118,
5.66018,1.94454,-2.94726,
5.67152,1.94267,-2.93397,
5.65642,1.94268,-2.95679,
5.65618,1.95065,-2.96692,
5.66693,1.94734,-2.95312,
5.67816,1.94548,-2.93995,
5.6632,1.94549,-2.96255,
5.66297,1.95339,-2.97259,
5.67361,1.9501,-2.95892,
5.68473,1.94825,-2.94588,
5.66991,1.94827,-2.96826,
5.66969,1.9561,-2.97822,
5.68023,1.95284,-2.96467,
5.69124,1.951,-2.95175,
5.67656,1.95102,-2.97391,
5.67634,1.95877,-2.98379,
5.68678,1.95554,-2.97037,
5.69769,1.95372,-2.95756,
5.68315,1.95374,-2.97951,
5.68293,1.96143,-2.98931,
5.69328,1.95822,-2.97601,
5.70408,1.95642,-2.96332,
5.68967,1.95643,-2.98505,
5.68946,1.96405,-2.99478,
5.69971,1.96087,-2.9816,
5.71041,1.95908,-2.96902,
5.69613,1.95909,-2.99055,
5.69592,1.96665,-3.0002,
5.70608,1.9635,-2.98714,
5.71668,1.96171,-2.97467,
5.70253,1.96173,-2.996,
5.70232,1.96922,-3.00557,
5.71239,1.96609,-2.99262,
5.72289,1.96432,-2.98027,
5.70887,1.96434,-3.00139,
5.70866,1.97176,-3.01089,
5.71864,1.96866,-2.99806,
5.72904,1.96691,-2.98581,
5.71515,1.96692,-3.00674,
5.71495,1.97428,-3.01617,
5.72483,1.97121,-3.00345,
5.73514,1.96946,-2.99131,
5.72138,1.96948,-3.01205,
5.72117,1.97678,-3.0214,
5.73097,1.97373,-3.00879,
5.74119,1.972,-2.99675,
5.72754,1.97201,-3.0173,
5.72734,1.97925,-3.02659,
5.73705,1.97622,-3.01408,
5.74718,1.9745,-3.00215,
5.73365,1.97452,-3.02251,
5.73345,1.98169,-3.03173,
5.74308,1.97869,-3.01933,
5.75311,1.97698,-3.0075,
5.73971,1.977,-3.02768,
5.73951,1.98411,-3.03682,
5.74905,1.98114,-3.02453,
5.759,1.97944,-3.0128,
5.74571,1.97945,-3.0328,
5.74552,1.98651,-3.04188,
5.75497,1.98356,-3.02969,
5.76483,1.98187,-3.01806,
5.75166,1.98189,-3.03787,
5.75147,1.98889,-3.04689,
5.76084,1.98596,-3.0348,
5.77062,1.98428,-3.02326,
5.75755,1.9843,-3.04291,
5.75736,1.99124,-3.05186,
5.76666,1.98834,-3.03987,
5.77635,1.98667,-3.02843,
5.7634,1.98668,-3.0479,
5.76321,1.99357,-3.05678,
5.77243,1.99069,-3.04489,
5.78203,1.98904,-3.03355,
5.76919,1.98905,-3.05285,
5.76901,1.99588,-3.06167,
5.77815,1.99302,-3.04988,
5.78767,1.99138,-3.03862,
5.77494,1.99139,-3.05776,
5.77475,1.99817,-3.06652,
5.78382,1.99533,-3.05482,
5.79326,1.9937,-3.04366,
5.78063,1.99371,-3.06263,
5.78045,2.00043,-3.07132,
5.78944,1.99762,-3.05972,
5.7988,1.996,-3.04865,
5.78628,1.99601,-3.06746,
5.7861,2.00268,-3.07609,
5.79501,1.99988,-3.06458,
5.8043,1.99827,-3.05359,
5.79187,1.99829,-3.07225,
5.7917,2.00491,-3.08082,
5.80054,2.00213,-3.0694,
5.80975,2.00053,-3.0585,
5.79743,2.00054,-3.077,
5.79725,2.00711,-3.08551,
5.80602,2.00436,-3.07418,
5.81515,2.00277,-3.06337,
5.80293,2.00278,-3.08172,
5.80276,2.0093,-3.09017,
5.81146,2.00656,-3.07893,
5.82051,2.00498,-3.0682,
5.80839,2.00499,-3.08639,
5.80822,2.01146,-3.09479,
5.81685,2.00875,-3.08363,
5.82583,2.00718,-3.07299,
5.81381,2.00719,-3.09103,
5.81364,2.01361,-3.09937,
5.8222,2.01091,-3.0883,
5.83111,2.00935,-3.07774,
5.81918,2.00937,-3.09564,
5.81901,2.01574,-3.10392,
5.8275,2.01306,-3.09294,
5.83634,2.01151,-3.08245,
5.82451,2.01152,-3.10021,
5.82434,2.01785,-3.10843,
5.83277,2.01519,-3.09753,
5.84154,2.01365,-3.08713,
5.82979,2.01366,-3.10474,
5.82963,2.01994,-3.11291,
5.83799,2.0173,-3.10209,
5.84669,2.01577,-3.09177,
5.83503,2.01578,-3.10924,
5.83487,2.02201,-3.11735,
5.84317,2.01939,-3.10662,
5.8518,2.01787,-3.09637,
5.84023,2.01788,-3.1137,
5.84007,2.02406,-3.12177,
5.84831,2.02146,-3.11111,
5.85687,2.01995,-3.10093,
5.84539,2.01996,-3.11813,
5.84524,2.0261,-3.12614,
5.85341,2.02352,-3.11556,
5.8619,2.02202,-3.10547,
5.85051,2.02203,-3.12253,
5.85036,2.02812,-3.13049,
5.85847,2.02556,-3.11999,
5.8669,2.02406,-3.10996,
5.8556,2.02407,-3.1269,
5.85544,2.03012,-3.1348,
5.86349,2.02758,-3.12438,
5.87185,2.02609,-3.11443,
5.86064,2.0261,-3.13123,
5.86048,2.03211,-3.13908,
5.86847,2.02958,-3.12873,
5.87677,2.02811,-3.11885,
5.86564,2.02812,-3.13553,
5.86549,2.03408,-3.14333,
5.87341,2.03157,-3.13306,
5.88165,2.0301,-3.12325,
5.8706,2.03011,-3.1398,
5.87045,2.03604,-3.14755,
5.87832,2.03354,-3.13735,
5.8865,2.03208,-3.12761,
5.87553,2.03209,-3.14404,
5.87538,2.03797,-3.15174,
5.88319,2.0355,-3.14161,
5.89131,2.03404,-3.13194,
5.88042,2.03406,-3.14825,
5.88027,2.0399,-3.1559,
5.88803,2.03744,-3.14584,
5.89608,2.03599,-3.13624,
5.88527,2.036,-3.15242,
5.88512,2.0418,-3.16003,
5.89282,2.03936,-3.15004,
5.90082,2.03792,-3.14051,
5.89009,2.03793,-3.15657,
5.88994,2.04369,-3.16413,
5.89759,2.04127,-3.15421,
5.90552,2.03984,-3.14475,
5.89487,2.03985,-3.16069,
5.89473,2.04557,-3.1682,
5.90231,2.04316,-3.15835,
5.91019,2.04174,-3.14895,
5.89962,2.04175,-3.16478,
5.89947,2.04743,-3.17224,
5.90701,2.04504,-3.16246,
5.91483,2.04362,-3.15313,
5.90433,2.04364,-3.16884,
5.90419,2.04928,-3.17626,
5.91167,2.0469,-3.16655,
5.91943,2.04549,-3.15727,
5.90901,2.04551,-3.17287,
5.90887,2.05111,-3.18025,
5.91629,2.04875,-3.1706,
5.924,2.04735,-3.16139,
5.91365,2.04736,-3.17688,
5.91351,2.05293,-3.18421,
5.92089,2.05058,-3.17463,
5.92854,2.04919,-3.16548,
5.91826,2.0492,-3.18086,
5.91812,2.05473,-3.18814,
5.92545,2.0524,-3.17862,
5.93305,2.05102,-3.16954,
5.92284,2.05103,-3.18481,
5.9227,2.05652,-3.19205,
5.92998,2.0542,-3.18259,
5.93752,2.05283,-3.17357,
5.92738,2.05284,-3.18873,
5.92725,2.0583,-3.19593,
5.93447,2.05599,-3.18654,
5.94197,2.05463,-3.17757,
5.9319,2.05464,-3.19263,
5.93176,2.06006,-3.19978,
5.93894,2.05777,-3.19045,
5.94638,2.05641,-3.18155,
5.93638,2.05642,-3.1965,
5.93625,2.06181,-3.20361,
5.94337,2.05953,-3.19435,
5.95077,2.05818,-3.1855,
5.94083,2.05819,-3.20034,
5.9407,2.06354,-3.20742,
5.94778,2.06129,-3.19821,
5.95512,2.05994,-3.18942,
5.94525,2.05995,-3.20416,
5.94512,2.06527,-3.2112,
5.95215,2.06302,-3.20205,
5.95944,2.06169,-3.19332,
5.94964,2.0617,-3.20796,
5.94951,2.06698,-3.21495,
5.9565,2.06475,-3.20586,
5.96374,2.06342,-3.19718,
5.954,2.06343,-3.21173,
5.95387,2.06868,-3.21868,
5.96081,2.06646,-3.20965,
5.968,2.06513,-3.20103,
5.95833,2.06514,-3.21548,
5.9582,2.07036,-3.22239,
5.9651,2.06816,-3.21341,
5.97224,2.06684,-3.20485,
5.96263,2.06685,-3.2192,
5.96251,2.07203,-3.22607,
5.96935,2.06984,-3.21715,
5.97645,2.06853,-3.20864,
5.9669,2.06854,-3.22289,
5.96678,2.07369,-3.22973,
5.97358,2.07152,-3.22087,
5.98063,2.07021,-3.21241,
5.97115,2.07022,-3.22657,
5.97102,2.07534,-3.23336,
5.97778,2.07318,-3.22456,
5.98479,2.07188,-3.21615,
5.97536,2.07189,-3.23022,
5.97524,2.07698,-3.23697,
5.98196,2.07483,-3.22823,
5.98891,2.07354,-3.21987,
5.97955,2.07355,-3.23385,
5.97943,2.0786,-3.24056,
5.9861,2.07647,-3.23187,
5.99301,2.07518,-3.22357,
5.98371,2.07519,-3.23745,
5.98359,2.08022,-3.24413,
5.99022,2.07809,-3.23549,
5.99709,2.07682,-3.22724,
5.98784,2.07683,-3.24103,
5.98773,2.08182,-3.24768,
5.99431,2.07971,-3.23909,
6.00114,2.07844,-3.23089,
5.99195,2.07845,-3.2446,
5.99183,2.08341,-3.2512,
5.99838,2.08131,-3.24267,
6.00516,2.08005,-3.23452,
5.99603,2.08006,-3.24813,
5.99591,2.08499,-3.2547,
6.00242,2.0829,-3.24622,
6.00915,2.08165,-3.23812,
6.00008,2.08165,-3.25165,
5.99997,2.08656,-3.25818,
6.00643,2.08448,-3.24975,
6.01312,2.08323,-3.2417,
6.00411,2.08324,-3.25514,
6.004,2.08812,-3.26164,
6.01042,2.08605,-3.25326,
6.01707,2.08481,-3.24526,
6.00811,2.08482,-3.25862,
6.008,2.08966,-3.26508,
6.01438,2.08761,-3.25675,
6.02099,2.08637,-3.24879,
6.01209,2.08638,-3.26207,
6.01198,2.0912,-3.2685,
6.01832,2.08916,-3.26022,
6.02489,2.08793,-3.25231,
6.01604,2.08794,-3.2655,
6.01593,2.09273,-3.2719,
6.02224,2.0907,-3.26367,
6.02877,2.08947,-3.2558,
6.01997,2.08948,-3.26891,
6.01986,2.09424,-3.27528,
6.02613,2.09223,-3.26709,
6.03262,2.09101,-3.25927,
6.02388,2.09101,-3.27231,
6.02377,2.09575,-3.27863,
6.02999,2.09374,-3.2705,
6.03644,2.09253,-3.26273,
6.02775,2.09254,-3.27568,
6.02765,2.09724,-3.28197,
6.03384,2.09525,-3.27388,
6.04025,2.09404,-3.26616,
6.03161,2.09405,-3.27903,
6.0315,2.09873,-3.28529,
6.03766,2.09675,-3.27725,
6.04403,2.09554,-3.26957,
6.03544,2.09555,-3.28236,
6.03533,2.10021,-3.28859,
6.04145,2.09823,-3.28059,
6.04778,2.09704,-3.27296,
6.03925,2.09704,-3.28567,
6.03914,2.10167,-3.29187,
6.04523,2.09971,-3.28392,
6.05152,2.09852,-3.27633,
6.04304,2.09853,-3.28897,
6.04293,2.10313,-3.29513,
6.04898,2.10118,-3.28723,
6.05523,2.09999,-3.27968,
6.0468,2.1,-3.29224,
6.04669,2.10457,-3.29837,
6.0527,2.10263,-3.29051,
6.05892,2.10145,-3.28301,
6.05054,2.10146,-3.2955,
6.05043,2.10601,-3.3016,
6.05641,2.10408,-3.29378,
6.06259,2.10291,-3.28632,
6.05426,2.10292,-3.29874,
6.05415,2.10744,-3.3048,
6.06009,2.10552,-3.29703,
6.06624,2.10435,-3.28961,
6.05795,2.10436,-3.30195,
6.05785,2.10886,-3.30799,
6.06376,2.10695,-3.30027,
6.06986,2.10579,-3.29288,
6.06163,2.1058,-3.30516,
6.06152,2.11027,-3.31116,
6.0674,2.10837,-3.30348,
6.07347,2.10721,-3.29614,
6.06528,2.10722,-3.30834,
6.06518,2.11167,-3.31432,
6.07102,2.10978,-3.30667,
6.07705,2.10863,-3.29937,
6.06891,2.10864,-3.3115,
6.06881,2.11306,-3.31745,
6.07462,2.11118,-3.30985,
6.08062,2.11004,-3.30259,
6.07252,2.11005,-3.31465,
6.07242,2.11445,-3.32057,
6.07819,2.11258,-3.31301,
6.08416,2.11144,-3.30579,
6.07611,2.11144,-3.31778,
6.07601,2.11582,-3.32367,
6.08175,2.11396,-3.31615,
6.08769,2.11283,-3.30897,
6.07968,2.11283,-3.32089,
6.07958,2.11719,-3.32675,
6.08529,2.11534,-3.31928,
6.09119,2.11421,-3.31213,
6.08323,2.11422,-3.32399,
6.08313,2.11855,-3.32982,
6.08881,2.11671,-3.32238,
6.09467,2.11558,-3.31528,
6.08676,2.11559,-3.32707,
6.08666,2.11989,-3.33287,
6.0923,2.11806,-3.32548,
6.09814,2.11694,-3.31841,
6.09026,2.11695,-3.33013,
6.09017,2.12124,-3.33591,
6.09578,2.11941,-3.32855,
6.10158,2.1183,-3.32152,
6.09375,2.11831,-3.33318,
6.09366,2.12257,-3.33892,
6.09924,2.12076,-3.33161,
6.10501,2.11965,-3.32461,
6.09722,2.11965,-3.33621,
6.09713,2.12389,-3.34193,
6.10268,2.12209,-3.33465,
6.10842,2.12099,-3.32769,
6.10067,2.12099,-3.33922,
6.10058,2.12521,-3.34491,
6.1061,2.12342,-3.33767,
6.1118,2.12232,-3.33075,
6.1041,2.12232,-3.34222,
6.10401,2.12652,-3.34788,
6.1095,2.12474,-3.34068,
6.11517,2.12364,-3.33379,
6.10751,2.12365,-3.3452,
6.10742,2.12782,-3.35084,
6.11288,2.12604,-3.34367,
6.11852,2.12495,-3.33682,
6.1109,2.12496,-3.34816,
6.11081,2.12911,-3.35378,
6.11624,2.12735,-3.34665,
6.12186,2.12626,-3.33983,
6.11428,2.12627,-3.35111,
6.11419,2.1304,-3.3567,
6.11959,2.12864,-3.34961,
6.12517,2.12756,-3.34283,
6.11763,2.12757,-3.35405,
6.11754,2.13168,-3.35961,
6.12292,2.12993,-3.35255,
6.12847,2.12885,-3.34581,
6.12097,2.12886,-3.35697,
6.12088,2.13295,-3.3625,
6.12623,2.13121,-3.35548,
6.13175,2.13013,-3.34877,
6.12429,2.13014,-3.35987,
6.1242,2.13421,-3.36538,
6.12952,2.13248,-3.3584,
6.13501,2.13141,-3.35172,
6.12759,2.13142,-3.36276,
6.1275,2.13547,-3.36824,
6.13279,2.13374,-3.3613,
6.13826,2.13268,-3.35466,
6.13087,2.13269,-3.36564,
6.13079,2.13671,-3.37109,
6.13605,2.135,-3.36418,
6.14148,2.13394,-3.35757,
6.13414,2.13395,-3.3685,
6.13405,2.13795,-3.37393,
6.13929,2.13625,-3.36705,
6.14469,2.1352,-3.36048,
6.13739,2.1352,-3.37134,
6.1373,2.13919,-3.37675,
6.14251,2.13749,-3.36991,
6.14789,2.13644,-3.36337,
6.14062,2.13645,-3.37418,
6.14054,2.14042,-3.37956,
6.14572,2.13873,-3.37275,
6.15107,2.13768,-3.36624,
6.14384,2.13769,-3.37699,
6.14375,2.14164,-3.38235,
6.14891,2.13996,-3.37558,
6.15423,2.13891,-3.3691,
6.14704,2.13892,-3.3798,
6.14695,2.14285,-3.38513,
6.15208,2.14118,-3.37839,
6.15737,2.14014,-3.37194,
6.15022,2.14015,-3.38259,
6.15013,2.14406,-3.3879,
6.15523,2.14239,-3.38119,
6.1605,2.14136,-3.37477,
6.15338,2.14136,-3.38536,
6.1533,2.14525,-3.39065,
6.15837,2.1436,-3.38397,
6.16361,2.14257,-3.37759,
6.15653,2.14258,-3.38812,
6.15645,2.14645,-3.39339,
6.1615,2.1448,-3.38674,
6.16671,2.14377,-3.38039,
6.15966,2.14378,-3.39087,
6.15958,2.14763,-3.39611,
6.16461,2.14599,-3.3895,
6.16979,2.14497,-3.38318,
6.16278,2.14498,-3.39361,
6.1627,2.14881,-3.39882,
6.1677,2.14718,-3.39224,
6.17286,2.14616,-3.38595,
6.16588,2.14617,-3.39633,
6.1658,2.14999,-3.40152,
6.17077,2.14836,-3.39497,
6.17591,2.14735,-3.38871,
6.16896,2.14736,-3.39904,
6.16888,2.15115,-3.40421,
6.17383,2.14953,-3.39769,
6.17894,2.14853,-3.39146,
6.17203,2.14853,-3.40173,
6.17195,2.15231,-3.40688,
6.17688,2.1507,-3.40039,
6.18196,2.1497,-3.39419,
6.17509,2.14971,-3.40441,
6.17501,2.15347,-3.40954,
6.17991,2.15186,-3.40308,
6.18497,2.15086,-3.39691,
6.17813,2.15087,-3.40708,
6.17805,2.15461,-3.41219,
6.18292,2.15302,-3.40576,
6.18796,2.15202,-3.39962,
6.18115,2.15203,-3.40974,
6.18107,2.15576,-3.41482,
6.18592,2.15417,-3.40843,
6.19093,2.15318,-3.40231,
6.18416,2.15318,-3.41238,
6.18408,2.15689,-3.41744,
6.18891,2.15531,-3.41108,
6.19389,2.15432,-3.40499,
6.18715,2.15433,-3.41502,
6.18707,2.15802,-3.42005,
6.19188,2.15645,-3.41372,
6.19684,2.15546,-3.40766,
6.19013,2.15547,-3.41764,
6.19005,2.15914,-3.42265,
6.19484,2.15758,-3.41635,
6.19977,2.1566,-3.41032,
6.19309,2.1566,-3.42024,
6.19302,2.16026,-3.42524,
6.19778,2.1587,-3.41896,
6.20269,2.15773,-3.41296,
6.19604,2.15773,-3.42284,
6.19597,2.16137,-3.42781,
6.20071,2.15982,-3.42157,
6.20559,2.15885,-3.41559,
6.19898,2.15885,-3.42542,
6.1989,2.16248,-3.43037,
6.20362,2.16093,-3.42416,
6.20848,2.15996,-3.41821,
6.2019,2.15997,-3.42799,
6.20183,2.16358,-3.43292,
6.20652,2.16204,-3.42673,
6.21136,2.16107,-3.42081,
6.20481,2.16108,-3.43055,
6.20473,2.16467,-3.43546,
6.2094,2.16314,-3.4293,
6.21422,2.16218,-3.42341,
6.2077,2.16219,-3.4331,
6.20763,2.16576,-3.43799,
6.21228,2.16423,-3.43186,
6.21707,2.16328,-3.42599,
6.21058,2.16328,-3.43564,
6.21051,2.16684,-3.44051,
6.21513,2.16532,-3.4344,
6.21991,2.16437,-3.42856,
6.21345,2.16438,-3.43816,
6.21337,2.16792,-3.44301,
6.21798,2.16641,-3.43693,
6.22273,2.16546,-3.43112,
6.2163,2.16546,-3.44067,
6.21623,2.16899,-3.4455,
6.22081,2.16749,-3.43945,
6.22554,2.16654,-3.43366,
6.21914,2.16655,-3.44317,
6.21907,2.17006,-3.44798,
6.22363,2.16856,-3.44196,
6.22833,2.16762,-3.4362,
6.22196,2.16762,-3.44566,
6.22189,2.17112,-3.45046,
6.22643,2.16963,-3.44446,
6.23112,2.16869,-3.43872,
6.22478,2.16869,-3.44814,
6.2247,2.17217,-3.45292,
6.22922,2.17069,-3.44694,
6.23389,2.16975,-3.44123,
6.22757,2.16976,-3.45061,
6.2275,2.17322,-3.45536,
6.232,2.17174,-3.44942,
6.23664,2.17081,-3.44373,
6.23036,2.17082,-3.45307,
6.23029,2.17427,-3.4578,
6.23477,2.1728,-3.45188,
6.23939,2.17187,-3.44622,
6.23313,2.17187,-3.45552,
6.23306,2.17531,-3.46023,
6.23752,2.17384,-3.45434,
6.24212,2.17292,-3.4487,
6.23589,2.17292,-3.45795,
6.23583,2.17634,-3.46265,
6.24026,2.17488,-3.45678,
6.24484,2.17396,-3.45117,
6.23864,2.17397,-3.46038,
6.23857,2.17737,-3.46505,
6.24299,2.17592,-3.45921,
6.24755,2.175,-3.45362,
6.24138,2.175,-3.46279,
6.24131,2.1784,-3.46745,
6.24571,2.17695,-3.46163,
6.25024,2.17603,-3.45607,
6.2441,2.17604,-3.46519,
6.24403,2.17941,-3.46983,
6.24841,2.17797,-3.46404,
6.25292,2.17706,-3.4585,
6.24681,2.17707,-3.46759,
6.24674,2.18043,-3.47221,
6.2511,2.17899,-3.46644,
6.2556,2.17808,-3.46093,
6.24951,2.17809,-3.46997,
6.24944,2.18144,-3.47457,
6.25378,2.18001,-3.46883,
6.25826,2.1791,-3.46334,
6.25219,2.17911,-3.47235,
6.25213,2.18244,-3.47693,
6.25645,2.18102,-3.47121,
6.2609,2.18012,-3.46574,
6.25487,2.18012,-3.47471,
6.2548,2.18344,-3.47927,
6.2591,2.18202,-3.47358,
6.26354,2.18113,-3.46813,
6.25753,2.18113,-3.47706,
6.25746,2.18444,-3.48161,
6.26175,2.18302,-3.47594,
6.26616,2.18213,-3.47052,
6.26018,2.18213,-3.4794,
6.26012,2.18543,-3.48394,
6.26438,2.18402,-3.47829,
6.26878,2.18313,-3.47289,
6.26282,2.18313,-3.48174,
6.26275,2.18641,-3.48625,
6.267,2.18501,-3.48063,
6.27138,2.18412,-3.47525,
6.26545,2.18413,-3.48406,
6.26538,2.18739,-3.48856,
6.26961,2.186,-3.48296,
6.27397,2.18511,-3.4776,
6.26806,2.18512,-3.48637,
6.268,2.18837,-3.49085,
6.27221,2.18698,-3.48528,
6.27655,2.1861,-3.47994,
6.27067,2.1861,-3.48868,
6.2706,2.18934,-3.49314,
6.27479,2.18795,-3.48759,
6.27911,2.18708,-3.48227,
6.27326,2.18708,-3.49097,
6.27319,2.1903,-3.49542,
6.27737,2.18893,-3.48989,
6.28167,2.18805,-3.4846,
6.27584,2.18806,-3.49326,
6.27578,2.19127,-3.49768,
6.27993,2.18989,-3.49218,
6.28421,2.18902,-3.48691,
6.27841,2.18903,-3.49553,
6.27835,2.19222,-3.49994,
6.28249,2.19086,-3.49446,
6.28675,2.18999,-3.48921,
6.28097,2.18999,-3.4978,
6.28091,2.19318,-3.50219,
6.28503,2.19182,-3.49673,
6.28927,2.19095,-3.4915,
